<?xml version="1.0"?>
<opencv_storage>
<opencv_ml_svm>
  <format>3</format>
  <svmType>C_SVC</svmType>
  <kernel>
    <type>LINEAR</type></kernel>
  <C>1.</C>
  <term_criteria><iterations>100</iterations></term_criteria>
  <var_count>3</var_count>
  <class_count>3</class_count>
  <class_labels type_id="opencv-matrix">
    <rows>3</rows>
    <cols>1</cols>
    <dt>i</dt>
    <data>
      1 2 3</data></class_labels>
  <sv_total>3</sv_total>
  <support_vectors>
    <_>
      -1.49938936e-43 -7.90332334e-43 7.45490783e-43</_>
    <_>
      -2.80259693e-43 -1.64372310e-42 1.71098542e-42</_>
    <_>
      -1.30320757e-43 -8.53390765e-43 9.65494642e-43</_></support_vectors>
  <uncompressed_sv_total>60</uncompressed_sv_total>
  <uncompressed_support_vectors>
    <_>
      3.50324616e-44 1.26116862e-43 1.12103877e-44</_>
    <_>
      8.40779079e-45 2.80259693e-45 1.68155816e-43</_>
    <_>
      1.68155816e-44 4.34402524e-44 3.64337601e-44</_>
    <_>
      2.94272678e-44 1.19110369e-43 2.80259693e-45</_>
    <_>
      2.10194770e-44 9.10844002e-44 1.68155816e-44</_>
    <_>
      8.40779079e-45 6.16571324e-44 4.62428493e-44</_>
    <_>
      1.40129846e-44 3.78350585e-44 6.44597294e-44</_>
    <_>
      1.26116862e-44 2.52233724e-44 4.34402524e-44</_>
    <_>
      1.40129846e-44 4.34402524e-44 3.50324616e-44</_>
    <_>
      1.12103877e-44 2.24207754e-44 6.72623263e-44</_>
    <_>
      2.38220739e-44 1.07899982e-43 2.10194770e-44</_>
    <_>
      1.40129846e-44 8.12753109e-44 1.26116862e-44</_>
    <_>
      2.24207754e-44 1.13505176e-43 1.26116862e-44</_>
    <_>
      8.40779079e-45 1.40129846e-44 2.80259693e-44</_>
    <_>
      8.40779079e-45 1.26116862e-44 7.84727140e-44</_>
    <_>
      1.68155816e-44 6.72623263e-44 5.32493416e-44</_>
    <_>
      1.40129846e-44 2.80259693e-44 9.24856986e-44</_>
    <_>
      2.80259693e-45 7.00649232e-45 1.26116862e-43</_>
    <_>
      1.82168800e-44 3.50324616e-44 1.09301280e-43</_>
    <_>
      2.80259693e-44 1.23314265e-43 2.10194770e-44</_>
    <_>
      9.80908925e-45 5.46506401e-44 4.90454463e-44</_>
    <_>
      1.12103877e-44 7.28675201e-44 5.60519386e-44</_>
    <_>
      2.66246708e-44 1.12103877e-43 8.40779079e-45</_>
    <_>
      2.10194770e-44 9.52882956e-44 2.38220739e-44</_>
    <_>
      2.24207754e-44 1.26116862e-43 5.60519386e-45</_>
    <_>
      1.54142831e-44 4.20389539e-44 1.26116862e-43</_>
    <_>
      4.20389539e-45 2.66246708e-44 1.12103877e-43</_>
    <_>
      1.96181785e-44 1.05097385e-43 6.30584309e-44</_>
    <_>
      9.80908925e-45 3.92363570e-44 7.70714155e-44</_>
    <_>
      4.20389539e-45 2.94272678e-44 1.03696086e-43</_>
    <_>
      2.80259693e-44 7.84727140e-44 1.40129846e-45</_>
    <_>
      7.00649232e-45 2.52233724e-44 1.13505176e-43</_>
    <_>
      1.54142831e-44 9.10844002e-44 5.32493416e-44</_>
    <_>
      2.38220739e-44 7.00649232e-44 8.82818033e-44</_>
    <_>
      1.40129846e-44 1.38728548e-43 4.20389539e-45</_>
    <_>
      2.52233724e-44 1.03696086e-43 1.54142831e-44</_>
    <_>
      1.26116862e-44 4.48415509e-44 1.06498683e-43</_>
    <_>
      1.12103877e-44 3.36311631e-44 8.54792063e-44</_>
    <_>
      5.60519386e-45 8.26766094e-44 4.48415509e-44</_>
    <_>
      2.52233724e-44 1.30320757e-43 1.96181785e-44</_>
    <_>
      2.10194770e-44 1.05097385e-43 6.72623263e-44</_>
    <_>
      2.52233724e-44 6.16571324e-44 7.00649232e-44</_>
    <_>
      1.40129846e-45 1.54142831e-44 1.40129846e-43</_>
    <_>
      2.80259693e-45 1.82168800e-44 5.18480432e-44</_>
    <_>
      2.80259693e-44 7.70714155e-44 7.00649232e-44</_>
    <_>
      1.54142831e-44 1.07899982e-43 7.00649232e-45</_>
    <_>
      8.40779079e-45 9.38869971e-44 5.74532370e-44</_>
    <_>
      1.96181785e-44 5.46506401e-44 9.24856986e-44</_>
    <_>
      4.20389539e-45 3.08285662e-44 6.86636248e-44</_>
    <_>
      1.82168800e-44 6.72623263e-44 8.12753109e-44</_>
    <_>
      7.00649232e-45 1.24715563e-43 1.12103877e-44</_>
    <_>
      1.12103877e-44 1.10702579e-43 1.54142831e-44</_>
    <_>
      1.82168800e-44 1.19110369e-43 2.80259693e-44</_>
    <_>
      4.20389539e-45 2.24207754e-44 1.00893489e-43</_>
    <_>
      5.60519386e-45 5.60519386e-44 6.86636248e-44</_>
    <_>
      1.12103877e-44 4.76441478e-44 9.52882956e-44</_>
    <_>
      2.10194770e-44 8.68805048e-44 1.40129846e-45</_>
    <_>
      2.38220739e-44 4.90454463e-44 6.72623263e-44</_>
    <_>
      3.92363570e-44 7.70714155e-44 2.80259693e-45</_>
    <_>
      8.40779079e-45 3.22298647e-44 1.02294788e-43</_></uncompressed_support_vectors>
  <decision_functions>
    <_>
      <sv_count>1</sv_count>
      <rho>0.</rho>
      <alpha>
        1.</alpha>
      <index>
        0</index></_>
    <_>
      <sv_count>1</sv_count>
      <rho>0.</rho>
      <alpha>
        1.</alpha>
      <index>
        1</index></_>
    <_>
      <sv_count>1</sv_count>
      <rho>0.</rho>
      <alpha>
        1.</alpha>
      <index>
        2</index></_></decision_functions></opencv_ml_svm>
</opencv_storage>
